digraph Tree {
node [shape=box, style="filled, rounded", color="black", fontname=helvetica] ;
edge [fontname=helvetica] ;
0 [label="Sex_male <= 0.5\ngini = 0.475\nsamples = 535\nvalue = [327, 208]\nclass = 0", fillcolor="#f6d1b7"] ;
1 [label="Pclass <= 2.5\ngini = 0.395\nsamples = 192\nvalue = [52, 140]\nclass = 1", fillcolor="#83c1ef"] ;
0 -> 1 [labeldistance=2.5, labelangle=45, headlabel="True"] ;
2 [label="Embarked_S <= 0.5\ngini = 0.123\nsamples = 106\nvalue = [7, 99]\nclass = 1", fillcolor="#47a4e7"] ;
1 -> 2 ;
3 [label="gini = 0.0\nsamples = 31\nvalue = [0, 31]\nclass = 1", fillcolor="#399de5"] ;
2 -> 3 ;
4 [label="Pclass <= 1.5\ngini = 0.169\nsamples = 75\nvalue = [7, 68]\nclass = 1", fillcolor="#4da7e8"] ;
2 -> 4 ;
5 [label="gini = 0.124\nsamples = 30\nvalue = [2, 28]\nclass = 1", fillcolor="#47a4e7"] ;
4 -> 5 ;
6 [label="gini = 0.198\nsamples = 45\nvalue = [5, 40]\nclass = 1", fillcolor="#52a9e8"] ;
4 -> 6 ;
7 [label="Embarked_C <= 0.5\ngini = 0.499\nsamples = 86\nvalue = [45, 41]\nclass = 0", fillcolor="#fdf4ed"] ;
1 -> 7 ;
8 [label="Embarked_Q <= 0.5\ngini = 0.491\nsamples = 74\nvalue = [42, 32]\nclass = 0", fillcolor="#f9e1d0"] ;
7 -> 8 ;
9 [label="gini = 0.486\nsamples = 65\nvalue = [38, 27]\nclass = 0", fillcolor="#f7dbc6"] ;
8 -> 9 ;
10 [label="gini = 0.494\nsamples = 9\nvalue = [4, 5]\nclass = 1", fillcolor="#d7ebfa"] ;
8 -> 10 ;
11 [label="gini = 0.375\nsamples = 12\nvalue = [3, 9]\nclass = 1", fillcolor="#7bbeee"] ;
7 -> 11 ;
12 [label="Pclass <= 1.5\ngini = 0.318\nsamples = 343\nvalue = [275, 68]\nclass = 0", fillcolor="#eba06a"] ;
0 -> 12 [labeldistance=2.5, labelangle=-45, headlabel="False"] ;
13 [label="Embarked_C <= 0.5\ngini = 0.47\nsamples = 77\nvalue = [48, 29]\nclass = 0", fillcolor="#f5cdb1"] ;
12 -> 13 ;
14 [label="Embarked_S <= 0.5\ngini = 0.425\nsamples = 49\nvalue = [34, 15]\nclass = 0", fillcolor="#f0b990"] ;
13 -> 14 ;
15 [label="gini = 0.0\nsamples = 1\nvalue = [1, 0]\nclass = 0", fillcolor="#e58139"] ;
14 -> 15 ;
16 [label="gini = 0.43\nsamples = 48\nvalue = [33, 15]\nclass = 0", fillcolor="#f1ba93"] ;
14 -> 16 ;
17 [label="gini = 0.5\nsamples = 28\nvalue = [14, 14]\nclass = 0", fillcolor="#ffffff"] ;
13 -> 17 ;
18 [label="Embarked_Q <= 0.5\ngini = 0.25\nsamples = 266\nvalue = [227, 39]\nclass = 0", fillcolor="#e9975b"] ;
12 -> 18 ;
19 [label="Embarked_C <= 0.5\ngini = 0.254\nsamples = 255\nvalue = [217, 38]\nclass = 0", fillcolor="#ea975c"] ;
18 -> 19 ;
20 [label="Pclass <= 2.5\ngini = 0.249\nsamples = 233\nvalue = [199, 34]\nclass = 0", fillcolor="#e9975b"] ;
19 -> 20 ;
21 [label="gini = 0.287\nsamples = 75\nvalue = [62, 13]\nclass = 0", fillcolor="#ea9b63"] ;
20 -> 21 ;
22 [label="gini = 0.23\nsamples = 158\nvalue = [137, 21]\nclass = 0", fillcolor="#e99457"] ;
20 -> 22 ;
23 [label="Pclass <= 2.5\ngini = 0.298\nsamples = 22\nvalue = [18, 4]\nclass = 0", fillcolor="#eb9d65"] ;
19 -> 23 ;
24 [label="gini = 0.0\nsamples = 7\nvalue = [7, 0]\nclass = 0", fillcolor="#e58139"] ;
23 -> 24 ;
25 [label="gini = 0.391\nsamples = 15\nvalue = [11, 4]\nclass = 0", fillcolor="#eeaf81"] ;
23 -> 25 ;
26 [label="gini = 0.165\nsamples = 11\nvalue = [10, 1]\nclass = 0", fillcolor="#e88e4d"] ;
18 -> 26 ;
}